%YAML:1.0
---
myHogDector_set: !!opencv-object-detector-hog
   winSize: [ 64, 128 ]
   blockSize: [ 16, 16 ]
   blockStride: [ 8, 8 ]
   cellSize: [ 8, 8 ]
   nbins: 9
   derivAperture: 1
   winSigma: 4.
   histogramNormType: 0
   L2HysThreshold: 2.0000000000000001e-01
   gammaCorrection: 0
   nlevels: 64
   signedGradient: 0
   SVMDetector: [ 1.10381022e-02, -1.59982108e-02, -1.82365291e-02,
       1.03816846e-02, 1.31044965e-02, -4.27726336e-05, -3.07669882e-02,
       -6.29465561e-03, 2.67671663e-02, 2.09100563e-02, 1.17861643e-03,
       -3.56060825e-02, 1.86195970e-02, 3.60861346e-02, 5.32292798e-02,
       -1.55846495e-02, 2.41026822e-02, 9.22092889e-03, 1.46216387e-02,
       -2.25618742e-02, -6.65130327e-03, 1.42735913e-02, 1.22608608e-02,
       2.20781844e-02, -4.04128060e-02, -1.46733597e-02, 1.03703095e-02,
       1.81559529e-02, 1.81466842e-03, -1.21642370e-02, 3.12565789e-02,
       -4.38587088e-03, 3.87964658e-02, -1.65363941e-02, -4.20856429e-03,
       5.67341736e-03, 6.33015996e-03, -1.63489692e-02, 9.98673309e-03,
       9.72760841e-03, 1.99440438e-02, 1.47821093e-02, -8.02755635e-03,
       2.69145076e-03, 3.47761549e-02, 1.10952370e-02, -6.79446803e-03,
       5.60665177e-03, -8.77437275e-03, -1.64156295e-02, 1.63991135e-02,
       5.85726742e-03, 2.12439578e-02, 2.38790177e-02, 1.97447632e-02,
       -1.55286202e-02, 7.46515288e-04, 2.17597093e-02, 2.65858951e-03,
       3.06765698e-02, -9.69786849e-03, 2.56725191e-03, 2.21126229e-02,
       1.68058351e-02, -1.81859583e-02, -1.99374538e-02, 2.33992785e-02,
       1.34349810e-02, 1.91603564e-02, 1.15192393e-02, -2.31325874e-04,
       2.71485522e-02, 4.59457988e-05, -4.52445261e-03, 4.68507828e-03,
       5.31053403e-03, -8.20375141e-03, 1.88741982e-02, 3.40912770e-03,
       1.15815876e-02, -7.80543266e-03, -4.09677345e-03, -1.91920772e-02,
       1.06240343e-02, 9.11926292e-03, 8.94710235e-03, 1.70010626e-02,
       1.10522816e-02, 3.22008654e-02, 2.53685880e-02, -1.28237233e-02,
       -6.21603569e-03, 1.02941561e-02, 1.83682721e-02, -1.09047547e-03,
       -7.82352057e-04, -1.29305925e-02, -4.47832933e-03,
       -7.95160420e-03, 1.34909712e-03, -6.79599773e-03, 1.97085347e-02,
       1.08636147e-03, -3.29746902e-02, -1.87118314e-02, 1.11972215e-03,
       9.33110062e-03, 4.73395630e-04, 3.77520395e-04, 1.68688319e-04,
       -1.62100408e-03, -5.32292854e-03, 3.42158391e-03, 2.22364976e-03,
       1.40078133e-02, -4.10044286e-03, -2.73384596e-03, 4.63869842e-03,
       -1.62961259e-02, -1.46017149e-02, -2.00549699e-02, 9.42870975e-04,
       1.15417177e-02, -1.30309490e-02, -2.78863646e-02, 2.05598343e-02,
       2.02440117e-02, 2.42818836e-02, 2.52958499e-02, 9.85450763e-03,
       -2.77392585e-02, -1.77246109e-02, 4.76647459e-04, -1.04035866e-02,
       -7.87099637e-03, 1.37970466e-02, 9.16126929e-03, -2.83184857e-03,
       -2.02013012e-02, -7.49633322e-03, -2.05451399e-02,
       -1.13332737e-02, -2.51127984e-02, -9.16184857e-04,
       -5.54028247e-03, 5.74851409e-03, -7.58470269e-03, 8.85780156e-03,
       1.58949709e-03, -5.78754023e-03, -8.46341718e-03, 1.35949624e-04,
       1.73856933e-02, -2.80923676e-02, -1.19811706e-02, -3.97459269e-02,
       -4.54290072e-03, 1.51933245e-02, -2.58423779e-02, -2.14312095e-02,
       7.83781335e-03, -1.05859514e-03, -4.37949831e-03, 4.73281145e-02,
       2.31892033e-03, -1.24248490e-02, 1.67544913e-02, 1.41635528e-02,
       1.50771867e-02, 3.18445116e-02, -8.89725983e-04, -2.05848012e-02,
       -7.73136411e-03, -3.01461034e-02, -1.82510726e-02,
       -3.37657565e-03, -1.92874111e-03, 3.61697562e-03, 2.14892849e-02,
       -9.66798235e-03, -2.35536098e-02, -1.62606724e-02,
       -2.63480749e-02, 5.01474598e-03, 1.86910871e-02, -1.30640306e-02,
       -1.22972801e-02, 4.70331796e-02, 2.80407257e-03, -2.38349941e-02,
       -1.45073142e-02, -2.70467903e-02, -1.03901105e-03, 3.42422212e-03,
       -4.29342091e-02, -1.75394788e-02, 1.02121383e-02, -1.16465008e-02,
       -1.27756912e-02, -2.64869910e-03, -3.32610756e-02, 2.06664559e-02,
       -6.81478344e-03, 1.60818361e-02, -1.46726510e-04, 4.76140082e-02,
       -2.84629948e-02, -2.06060875e-02, 3.46558057e-02, -2.14192457e-02,
       -1.23204533e-02, 4.27645398e-04, -8.97350255e-04, -2.69175787e-02,
       -8.02961586e-04, -2.58699656e-02, -5.34846040e-04, 7.34657981e-03,
       -2.22175457e-02, 2.47630235e-02, 1.29212216e-02, -2.52953637e-02,
       -2.06908267e-02, 2.37834156e-02, 3.74412835e-02, -6.02147658e-04,
       -1.69658251e-02, -3.97328660e-02, -5.37775178e-03,
       -1.79748721e-02, -3.42748724e-02, -4.53038439e-02, 2.34866701e-02,
       2.51797377e-03, -1.15379682e-02, 1.63145848e-02, -4.66549583e-03,
       3.39703225e-02, 1.40036820e-02, 1.68718621e-02, -1.33596594e-02,
       1.66074354e-02, 3.77121149e-03, -2.45407037e-02, -1.37725640e-02,
       -2.37042960e-02, -4.61230427e-03, 1.53167421e-04, -1.64795704e-02,
       -6.29244074e-02, -7.54253566e-03, -1.94483884e-02,
       -5.25071565e-03, 5.40365232e-03, -1.55738220e-02, 3.77919376e-02,
       1.20587908e-02, 3.25471535e-03, -2.23189164e-02, 2.87103821e-02,
       1.05132360e-03, 4.52271837e-04, 6.41024322e-04, -9.57731437e-03,
       -1.16103701e-02, 2.88175652e-03, -7.47191778e-04, -1.57930534e-02,
       1.55459484e-02, -9.56238434e-03, 2.60415254e-03, 2.07039062e-02,
       1.79180945e-03, 3.00730430e-02, 1.03846481e-02, 2.55613234e-02,
       -1.10005494e-02, 1.79894827e-02, -4.14771307e-03, -8.83686543e-03,
       1.13986270e-03, -9.35421884e-03, 7.07698567e-03, -2.90917736e-02,
       2.13444177e-02, 5.85366832e-03, 4.55574784e-03, -8.68948735e-03,
       -1.71547960e-02, -1.96718168e-03, 1.65424813e-02, 9.50615108e-03,
       9.82721802e-03, -4.66454978e-04, -2.92812772e-02, 1.30067468e-02,
       -5.63255092e-03, -1.50742792e-02, -3.14271636e-03,
       -1.00496067e-02, -3.78057896e-03, -1.20843419e-04,
       -4.37726965e-03, -2.44876575e-02, -2.12902715e-03,
       -3.99276009e-03, -7.57404743e-03, -1.42623186e-02, 5.13050007e-03,
       6.03306247e-03, -8.56854301e-03, 1.36530828e-02, 9.98336729e-03,
       1.41309844e-02, 1.12536652e-02, -2.05260166e-03, 4.21853736e-03,
       -7.68794445e-03, 5.55077521e-03, -7.92203005e-03, -4.92078951e-03,
       -7.93988071e-03, -6.73933013e-04, -1.22121805e-02,
       -6.06019935e-03, -7.51245883e-04, -2.87718792e-02, 6.18205359e-03,
       -2.12360192e-02, -3.51176248e-03, -2.11389884e-02,
       -9.06182546e-03, 2.73493174e-02, 1.43413190e-02, -1.28284637e-02,
       -5.95029779e-02, -2.33858395e-02, 5.97932469e-03, 1.23178177e-02,
       -2.35327072e-02, -1.78859290e-02, -5.07729303e-04, 3.77765112e-03,
       2.58894451e-02, 2.46003922e-03, 4.72350679e-02, 4.91281739e-03,
       3.40049877e-03, -7.21952456e-05, 3.17941606e-02, -2.36035045e-03,
       -1.70663092e-02, -4.12056874e-03, -2.84989085e-02,
       -4.24495433e-03, -4.56696339e-02, 1.90963922e-03, 4.58135363e-03,
       2.73220893e-02, -6.72740303e-03, 1.06574390e-02, 9.53123719e-03,
       -2.99568791e-02, -9.78456810e-03, 2.24779658e-02, 1.53247807e-02,
       -1.31824119e-02, -6.72666542e-03, -6.31278148e-03,
       -1.61308527e-03, 1.16449147e-02, -3.18206176e-02, -2.95450189e-03,
       -1.35687608e-02, -2.05195416e-03, -2.82599404e-02,
       -1.37577513e-02, -9.52096749e-03, 5.75326290e-03, 3.38812568e-03,
       1.08918799e-02, 1.80137064e-02, 6.26946706e-03, 2.73525286e-02,
       1.23618618e-02, 2.10286696e-02, -3.08786854e-02, -6.66901004e-03,
       7.98071548e-03, 3.18591343e-03, 3.33751366e-02, -1.48319835e-02,
       5.57312742e-03, -1.36463428e-02, 8.62599164e-03, -1.88776478e-02,
       -1.71033014e-02, -9.18647088e-03, -3.82009484e-02,
       -2.93775322e-03, 1.64712761e-02, -1.55213885e-02, -1.64674893e-02,
       1.13138324e-03, -3.38236336e-04, -2.24890877e-02, -2.53304057e-02,
       -3.35277058e-02, -3.22729088e-02, -8.63732677e-03,
       -1.05092311e-02, -2.13525984e-02, -6.74471771e-03, 6.65318826e-03,
       3.66933504e-03, -3.14394757e-03, -1.74682457e-02, 1.13958744e-02,
       7.97669124e-03, 2.43410189e-02, 4.66901017e-03, 9.65367444e-03,
       -2.26623309e-03, -8.42146017e-03, -4.33811765e-05,
       -1.52378604e-02, -2.71461569e-02, -9.04817134e-03, 2.58110557e-02,
       3.65780969e-03, -7.70113198e-03, -1.37376506e-02, -1.48146367e-02,
       1.59936864e-03, 1.21138487e-02, 3.10698301e-02, 2.07170588e-03,
       -1.98880862e-02, -3.25382873e-02, 1.10983546e-03, 1.46391671e-04,
       9.53474734e-03, -6.19381480e-03, -8.20004754e-03, -1.76637452e-02,
       -7.73098972e-03, -4.69710156e-02, -2.17426475e-02, 1.16978791e-02,
       1.35391075e-02, 1.63782313e-02, 2.57778317e-02, 1.81407407e-02,
       7.61020090e-03, 1.95579920e-02, 2.05423404e-02, 1.42343750e-03,
       1.50087271e-02, -1.70996767e-02, 2.99547315e-02, -1.48374550e-02,
       -1.18037257e-02, -1.19521394e-02, -1.84005860e-03, 9.98592749e-03,
       1.07383830e-02, 1.77705176e-02, -1.18800451e-03, 1.74060632e-02,
       1.93009786e-02, 3.78627852e-02, 1.08558880e-02, 1.19946636e-02,
       -1.60312261e-02, -2.36516800e-02, 3.10451165e-03, 1.11665782e-02,
       -1.11899478e-02, -2.42476370e-02, 2.39964621e-03, 1.27814803e-02,
       2.49992311e-02, 1.69635192e-02, -2.99631003e-02, -2.09606364e-02,
       -3.41863162e-03, 1.62052121e-02, -1.08189275e-02, -2.64912192e-03,
       4.17279196e-04, 1.16685396e-02, 3.54944095e-02, 2.61823530e-03,
       1.16452416e-02, 2.04322673e-02, -1.81465130e-02, -2.62280051e-02,
       2.18605958e-02, 1.17816161e-02, -5.12238918e-03, 2.11526603e-02,
       -2.40704697e-02, -8.11120123e-03, 5.23337256e-03, 9.76867694e-03,
       -3.06000747e-02, -2.88147982e-02, 5.37165068e-03, -2.47226655e-02,
       2.53393296e-02, -6.27558026e-03, -5.92664210e-03, 1.63244978e-02,
       5.47675379e-02, -3.72091681e-02, -1.82964783e-02, -1.73681218e-03,
       -4.90424149e-02, 1.10921599e-02, 2.98158508e-02, -5.30036306e-03,
       2.47777253e-02, 1.28199086e-02, -1.96692068e-02, 3.93396243e-02,
       2.60560829e-02, -2.80397311e-02, 1.76672079e-02, -2.88763107e-03,
       1.14329737e-02, 2.64841057e-02, 3.50843631e-02, -3.75501737e-02,
       2.29114294e-02, -1.23948297e-02, -2.18973421e-02, 2.42074952e-02,
       9.14042536e-03, -1.88569054e-02, 1.97565444e-02, 1.25131086e-02,
       -4.06440347e-03, -2.40931846e-03, 1.90232601e-02, 4.73562144e-02,
       1.66794118e-02, -1.81525480e-02, -2.55414401e-04, 1.11256074e-02,
       2.34182868e-02, 3.28676328e-02, 9.68212634e-03, 2.08757655e-03,
       2.21694913e-02, 2.21964605e-02, 7.11313775e-03, 2.78692804e-02,
       2.73870584e-02, -8.97710584e-03, -4.10039499e-02, -2.10220534e-02,
       1.08412607e-02, 3.87042388e-03, 1.30980473e-03, -1.84121523e-02,
       7.02269608e-03, 1.39393182e-02, 1.88620202e-02, -1.96818616e-02,
       -1.59876551e-02, 5.44249825e-03, -2.46741101e-02, -4.69213491e-03,
       -5.34512894e-03, 2.33426765e-02, 1.95032377e-02, 5.03173284e-03,
       -4.68040304e-03, -2.42155287e-02, -3.72551866e-02, 2.15955079e-02,
       1.45982029e-02, -1.43691869e-02, 1.43055869e-02, 2.00729426e-02,
       2.52922345e-02, -1.22320009e-02, -3.20112929e-02, -2.19237022e-02,
       2.33943891e-02, 2.02821996e-02, 1.41348913e-02, 1.74899232e-02,
       2.42675114e-02, 1.41662871e-02, -1.32710645e-02, -4.56260750e-03,
       -1.75147951e-02, 2.77120108e-03, 1.18649537e-02, -6.47039944e-03,
       -1.41729014e-02, -6.79391902e-04, 3.97954620e-02, -4.30853432e-03,
       1.03773037e-02, -8.58273823e-03, -2.83343229e-03, 4.32251394e-03,
       -1.43446606e-02, -8.90698563e-03, 3.26030664e-02, -1.91338279e-03,
       -1.42241931e-02, 1.24195432e-02, 1.74604356e-02, 3.33773792e-02,
       1.55725423e-02, -3.24552623e-03, -2.41692341e-03, -6.66975320e-05,
       -7.21501885e-03, -9.18032252e-04, -3.60583887e-03,
       -2.83749145e-03, -1.93184484e-02, -3.32489680e-03, 1.07734986e-02,
       2.50056460e-02, -2.96378916e-04, 2.47281678e-02, -3.66615225e-03,
       2.48108595e-03, 9.33777992e-05, 3.88901494e-02, 1.76879056e-02,
       -2.69273091e-02, -1.58169959e-02, 2.53986456e-02, -2.91971825e-02,
       -2.16216985e-02, -3.47701125e-02, -2.91520040e-02, 7.67023244e-04,
       1.25356931e-02, 1.45721082e-02, 2.05711294e-02, 5.13812527e-03,
       -5.31933876e-03, 4.56051901e-03, -1.72050437e-03, -2.79518180e-02,
       -3.64282425e-03, 2.63307011e-04, -3.19722836e-04, 2.65643885e-03,
       -1.20357582e-02, 1.82013325e-02, 2.71938909e-02, -3.87257896e-02,
       -4.51367274e-02, 3.71850319e-02, 1.84747763e-02, -3.34353861e-03,
       -1.62948575e-02, -1.11555541e-03, -1.81267150e-02, 1.91073157e-02,
       2.56453250e-02, -1.36354109e-02, 2.84486031e-03, 1.10937387e-03,
       1.78421866e-02, 2.83504948e-02, -3.01250583e-03, -1.78201462e-03,
       4.40059453e-02, 5.69159957e-03, -3.30771692e-02, 6.48866734e-03,
       2.44464143e-03, 1.54656004e-02, 4.97279363e-03, -1.50273088e-02,
       3.76455262e-02, 7.16257989e-02, -1.93323232e-02, -1.57796871e-02,
       2.35786121e-02, 1.43303834e-02, 9.89830121e-03, -7.17127137e-03,
       -9.15958360e-03, 9.40999016e-03, 1.72143728e-02, -3.79205123e-02,
       -4.10232767e-02, 1.45770805e-02, -3.35020921e-03, -8.36092327e-03,
       -7.75450049e-03, -1.84069183e-02, 2.72145867e-02, 6.22173399e-02,
       -2.07148921e-02, -1.88919567e-02, -8.39012489e-03, 2.63206810e-02,
       8.00024718e-03, 9.41764470e-03, -2.01989487e-02, 1.83473304e-02,
       1.64012350e-02, -3.40155363e-02, -2.30107065e-02, 3.40078678e-03,
       -1.10490825e-02, -1.77850493e-03, 7.31397932e-03, -1.96417188e-03,
       2.36834772e-02, 3.16477641e-02, -1.25953136e-02, -1.82982422e-02,
       1.30386613e-02, 7.86526781e-03, 4.98309266e-03, 1.24884322e-02,
       2.01566657e-03, -1.30000589e-02, 2.32710894e-02, -1.49890967e-02,
       -9.01845691e-04, 2.85153221e-02, -3.19046667e-03, -2.22015735e-02,
       1.63250603e-02, 4.43756522e-04, 1.80004202e-02, 6.37970492e-02,
       7.30818091e-03, -7.88488705e-03, -4.49765939e-03, 9.32716823e-04,
       3.86637263e-03, 2.12397054e-02, -1.65803079e-02, -1.61422547e-02,
       1.79673638e-02, -1.80640966e-02, -5.39036607e-03, 2.36437060e-02,
       -1.60058402e-02, -1.63841564e-02, -7.12077739e-03,
       -3.23317535e-02, -5.40320808e-03, 1.52532244e-02, -7.84620270e-03,
       1.02378167e-02, 1.97638851e-02, 8.79236776e-03, -4.82733687e-03,
       2.01452971e-02, 2.93525010e-02, 3.15727922e-03, -1.28339266e-03,
       -7.01858988e-03, -5.13651920e-03, 1.10693858e-03, -2.29644757e-02,
       -1.98537260e-02, 9.12529137e-03, -6.59544673e-03, 8.92365351e-03,
       3.96314077e-02, -2.16783844e-02, 4.50866157e-03, 6.56800531e-03,
       1.41873443e-02, -4.75920364e-03, -9.27678030e-03, -2.09972006e-03,
       -7.73730734e-03, 1.30399466e-02, -1.68625023e-02, 2.10209237e-03,
       -1.14289913e-04, -5.10778569e-04, 3.29974084e-03, 1.23167951e-02,
       1.87659089e-03, 2.01670974e-02, 1.92068017e-03, -7.09204376e-03,
       1.30719375e-02, 1.00349812e-02, -3.03485543e-02, -3.06405146e-02,
       6.63190475e-03, 3.55762220e-03, -1.75965708e-02, -5.97026898e-03,
       -2.22088080e-02, -2.79109273e-03, 1.80545577e-03, 1.87400394e-04,
       1.00238877e-03, 1.43897282e-02, 1.23905968e-02, 9.81129333e-03,
       4.87227142e-02, 4.75365843e-04, 2.66958345e-02, 2.13612318e-02,
       1.76451039e-02, 4.76348819e-03, 1.69405024e-02, -2.50920355e-02,
       1.97280361e-03, 2.05816757e-02, -7.17970356e-03, -2.52101966e-03,
       6.88322540e-03, 2.66231913e-02, -9.55288205e-03, 1.88894533e-02,
       1.98621713e-02, -7.50824716e-03, 1.86595484e-03, -2.64432449e-02,
       2.53679371e-03, 2.49980483e-02, 1.45661328e-02, -2.30448525e-02,
       -7.95406103e-03, 9.73983854e-03, 1.64311752e-02, 7.56506016e-03,
       -2.87404992e-02, 3.21716536e-03, 5.79492189e-03, -1.27747133e-02,
       -3.60372290e-02, -2.66839359e-02, -2.22239811e-02, 5.31281671e-03,
       9.47675388e-03, 5.31427097e-03, 1.87890176e-02, 4.80989143e-02,
       5.33486567e-02, 2.98460498e-02, 1.05775623e-02, 1.85165834e-02,
       1.59260035e-02, 1.62376484e-04, 2.99669662e-03, 3.01358812e-02,
       2.51986571e-02, 2.90504266e-02, -2.63554300e-03, 1.09761968e-05,
       2.46279482e-02, 1.07011460e-02, 2.72008590e-03, -2.02099737e-02,
       4.45042923e-03, -1.03731258e-02, -9.92621295e-03, -5.24232071e-03,
       7.96118565e-03, -3.31302360e-02, -1.84169989e-02, -1.62260327e-02,
       -2.46610027e-02, -4.03084233e-03, -2.31748745e-02, 7.90628884e-03,
       -8.49260390e-03, 1.33548910e-02, -2.30095331e-02, 7.04276981e-03,
       2.84583066e-02, -1.41922971e-02, 1.02902120e-02, 1.19921537e-02,
       2.03133859e-02, -1.33339260e-02, -3.11511033e-03, -3.71654006e-03,
       -3.06554278e-03, 1.05048558e-02, -1.12462826e-02, 2.28497423e-02,
       7.41276797e-03, 1.80277601e-02, -3.13899703e-02, -1.25114927e-02,
       2.08838638e-02, -2.26519555e-02, 1.04615539e-02, -2.01726537e-02,
       -1.49743920e-02, -1.38224857e-02, 5.37679251e-03, -1.01536959e-02,
       -2.07447121e-03, -3.13980207e-02, -3.02157886e-02,
       -1.94997911e-03, -3.30216996e-02, 1.34946257e-02, -2.50717606e-02,
       -1.23060485e-02, -3.04150414e-02, -1.87771441e-03,
       -8.68383143e-03, 1.43186152e-02, -3.59338266e-03, -6.12905435e-03,
       6.99099852e-03, 4.00682352e-02, 1.50797749e-02, -2.51763361e-03,
       -3.65769211e-03, 9.17931262e-04, 2.90566236e-02, 1.86872743e-02,
       -1.25822648e-02, 4.23380472e-02, 3.52512971e-02, 8.63042567e-03,
       -5.51610161e-03, -1.01664271e-02, 3.66527811e-02, -1.63553897e-02,
       -1.58775726e-03, -9.40245390e-03, 6.28945418e-03, -3.40086408e-03,
       8.08955636e-03, -1.78945158e-02, 1.34464595e-02, -8.61477386e-03,
       -1.62633769e-02, 1.86984949e-02, 4.91621159e-03, -1.52054140e-02,
       -1.49172470e-02, -1.25056049e-02, -2.48686243e-02,
       -1.83134414e-02, -5.53935654e-02, 1.05524557e-02, 1.21604605e-02,
       -8.93310364e-03, 1.39830559e-02, 3.30401282e-03, 2.05252357e-02,
       -1.68767273e-02, -1.56799443e-02, -1.17155472e-02, 7.35984789e-03,
       1.43678719e-02, 1.88542865e-02, 1.92480832e-02, 3.61718275e-02,
       2.37550996e-02, 1.40661998e-02, 1.06283259e-02, -8.16528127e-03,
       -1.17263328e-02, 1.47484401e-02, 1.35534815e-02, 1.72617380e-02,
       9.85307060e-03, -1.04319677e-02, -1.37106357e-02, -2.46789819e-03,
       -4.51318882e-02, -7.98911974e-03, -2.80499887e-02,
       -4.13321815e-02, -1.72415543e-02, -1.36556653e-02,
       -2.01048478e-02, -1.94304697e-02, -7.80228199e-03,
       -3.66832204e-02, -2.17999276e-02, 1.90368369e-02, 2.00747438e-02,
       6.33441135e-02, 5.37952371e-02, 4.70592007e-02, 2.67741010e-02,
       3.02101504e-02, -1.46461772e-02, 1.67792793e-02, 3.01035885e-02,
       1.16992164e-02, 2.40304321e-02, 3.45605016e-02, 2.40814369e-02,
       1.96794458e-02, 3.67090590e-02, -1.90854203e-02, 2.11748332e-02,
       -1.35188019e-02, -5.15635218e-03, -2.64297705e-02,
       -1.44388778e-02, 2.11984180e-02, 6.78432593e-03, 2.29414795e-02,
       1.11537538e-02, 3.50284688e-02, -2.21218448e-02, 1.89579912e-02,
       -1.52973309e-02, -2.26569213e-02, -3.26657631e-02,
       -3.01339328e-02, 4.66821808e-03, 3.79893370e-02, 2.42981780e-02,
       1.18823983e-02, 1.66329090e-02, 3.44974734e-02, 2.81556062e-02,
       3.81569080e-02, 4.88181561e-02, 3.75240892e-02, -5.47736324e-03,
       -1.06946006e-02, -3.76304090e-02, 2.33472115e-03, 6.80279126e-03,
       -3.47238092e-04, -1.69781188e-03, -6.19670888e-03, 1.61373857e-02,
       -7.10462499e-03, 1.06374454e-02, -1.99881401e-02, 3.13395336e-02,
       8.02260078e-03, -2.42795944e-02, 3.49884992e-03, 3.91607126e-03,
       1.24134040e-02, 4.52436134e-02, 1.45086180e-02, -3.82704139e-02,
       2.16185600e-02, 7.56495632e-03, 3.47942987e-04, -1.17916591e-03,
       -1.64075084e-02, -2.52635870e-02, 1.96201820e-02, 6.43701945e-03,
       -5.04036527e-03, 1.89391691e-02, 2.05110367e-02, -2.04095282e-02,
       4.71262587e-03, -1.24719329e-02, -4.85479878e-03, 7.98274204e-03,
       3.66331334e-03, -2.89344508e-02, 1.49555597e-02, 3.78181823e-02,
       2.11204607e-02, -1.19869044e-04, -1.30961025e-02, -3.13123278e-02,
       -4.15565955e-05, -1.16776889e-02, -2.65429541e-02, 1.23240298e-03,
       4.18630913e-02, 6.79578958e-03, -1.56468451e-02, -2.84505123e-03,
       -5.33279614e-04, 2.12710612e-02, 3.38960327e-02, -1.85690038e-02,
       6.50412217e-03, 1.78947151e-02, -2.53999103e-02, 1.26266647e-02,
       -2.04109866e-02, -2.30638776e-03, 1.67308301e-02, 1.45202652e-02,
       -1.39656002e-02, 6.70268061e-03, 1.62022486e-02, -8.71891528e-03,
       -5.96435880e-03, -1.34465806e-02, -4.33475804e-03, 3.75719182e-02,
       1.37834996e-02, -4.02688682e-02, -1.95645690e-02, 1.82877239e-02,
       -3.95957641e-02, 6.43584784e-03, -2.99058948e-02, -1.27261793e-02,
       2.82229856e-02, -1.41390953e-02, -4.18430306e-02, -3.48343892e-04,
       -1.18788350e-02, -1.64449178e-02, -2.26445533e-02,
       -3.88152786e-02, -3.34064327e-02, -1.45462463e-02, 1.24480464e-02,
       3.85879762e-02, 3.99343669e-02, 2.84066107e-02, 5.26463089e-04,
       -1.74147505e-02, -1.96833350e-02, -1.27213569e-02,
       -1.69667061e-02, 3.16061149e-03, 4.73758532e-03, 8.10961574e-02,
       5.58781512e-02, 2.89298072e-02, 1.80232916e-02, -2.36562919e-02,
       -5.91385625e-02, -2.24790052e-02, 2.72356253e-02, 5.82200028e-02,
       8.38910267e-02, 5.87651357e-02, 8.02782457e-03, 2.33305115e-02,
       -2.39465339e-03, -1.43851647e-02, 7.97262415e-03, 1.77012831e-02,
       1.18036717e-02, -6.42504822e-03, -1.38819255e-02, 1.75000858e-02,
       -6.92754751e-03, -1.98496822e-02, 1.93845239e-02, 3.14317942e-02,
       -2.88008340e-02, -8.72451533e-03, -3.32446024e-03, 5.68875344e-03,
       -1.55080983e-03, 3.10950866e-03, 1.06039811e-02, 5.39605580e-02,
       7.40897749e-03, 3.70632298e-02, 1.45620080e-02, -1.66971497e-02,
       -4.21782443e-03, 4.00167610e-03, -1.25524309e-02, -8.53375345e-03,
       4.43545990e-02, 5.23257293e-02, -9.95884649e-03, 1.14998706e-02,
       3.65171283e-02, 2.97770705e-02, 4.19596722e-03, 4.26053163e-03,
       3.94658297e-02, 6.74582645e-02, 4.10434529e-02, -1.07006300e-02,
       1.06231853e-01, 1.20080628e-01, 7.64910206e-02, -1.86003074e-02,
       -2.98767947e-02, -1.01953698e-02, 1.91790275e-02, -3.67984995e-02,
       1.22839948e-02, 7.43150637e-02, 5.23798652e-02, 5.01013175e-03,
       -1.70074701e-02, -4.64338325e-02, -2.70453300e-02,
       -3.04237772e-02, -4.42708023e-02, -3.51320095e-02, 5.60612418e-02,
       8.99385735e-02, 4.24983948e-02, -1.84260926e-03, -2.44823378e-03,
       1.59084983e-02, 6.25404492e-02, -2.11423234e-04, -3.84882651e-02,
       2.11689360e-02, 3.38071734e-02, -7.56074162e-03, -3.87539081e-02,
       -4.16813344e-02, -1.85032692e-02, -2.13129260e-02,
       -4.24850285e-02, 4.95471954e-02, 8.53242651e-02, 3.21935378e-02,
       -4.24863910e-03, 1.38539514e-02, 1.46125164e-02, 1.23775974e-02,
       2.09766291e-02, -2.61454359e-02, 1.31866587e-02, 1.18902363e-02,
       -3.08513585e-02, -1.97495222e-02, 1.06825214e-03, -7.65954703e-03,
       2.67969072e-02, 2.64308471e-02, -4.33377596e-03, 1.66968186e-03,
       3.17756124e-02, -2.34874208e-02, -3.04261632e-02, 6.34805718e-03,
       1.46105671e-02, 4.14819457e-03, 1.03038372e-02, -3.13175879e-02,
       -4.66297893e-03, -1.42794698e-02, -4.92994078e-02,
       -4.08280417e-02, -1.66695137e-02, -2.06796732e-02,
       -1.49849132e-02, 4.13863081e-03, 2.41854154e-02, 1.43225994e-02,
       5.21901324e-02, 4.47678892e-03, -1.13931915e-03, -1.81515366e-02,
       -2.96768099e-02, -9.51476512e-04, 3.82043496e-02, 2.37393603e-02,
       3.06398328e-02, 4.71125655e-02, 8.56919400e-03, 4.34915954e-03,
       -1.78982001e-02, -1.53099159e-02, -7.30117830e-03, 9.75230522e-03,
       -1.13500804e-02, 2.53531826e-03, 4.98840250e-02, -1.19316354e-02,
       7.78142968e-03, -3.54312882e-02, -3.44947055e-02, -3.29565220e-02,
       1.85771734e-02, 1.26416525e-02, -5.29965525e-03, 7.37231644e-03,
       3.11295968e-03, -4.14554588e-03, -3.99923325e-02, -2.24181619e-02,
       -1.29783861e-02, 1.06790923e-02, -1.95611920e-02, 2.36646179e-02,
       7.23607168e-02, 2.02600658e-02, 7.93712027e-03, -1.23655032e-02,
       6.30600750e-03, 4.28817607e-03, 2.69634253e-03, 3.28547768e-02,
       3.15252729e-02, 6.32560551e-02, -2.19800659e-02, -3.04255560e-02,
       -1.00128092e-02, -1.20438449e-02, 2.67918874e-02, 1.90194454e-02,
       8.81149434e-03, -9.55022126e-03, 1.53138051e-02, -1.04889730e-02,
       1.14841422e-03, -1.73886605e-02, -6.79690251e-03, -4.46283229e-04,
       7.33748497e-03, -1.94172151e-02, -5.94549254e-03, 1.23152751e-02,
       -2.12602913e-02, -3.49866599e-02, 9.00766987e-04, -2.86498573e-02,
       -2.03313921e-02, -7.18678441e-03, -8.91537964e-03, 4.94528078e-02,
       6.02435432e-02, 1.13512632e-02, 4.62912908e-03, -1.03031436e-03,
       1.60820913e-02, -3.91609687e-03, 2.73757037e-02, 2.14600340e-02,
       4.61013392e-02, 3.28995697e-02, -1.15500363e-02, -1.39898071e-02,
       -8.45913496e-03, -5.65071474e-04, -1.22796074e-02, 5.58615997e-02,
       5.60049191e-02, -8.38218629e-03, 2.36274246e-02, -1.27098868e-02,
       -9.72338300e-03, -1.37269804e-02, 1.57433152e-02, -3.85160139e-03,
       1.22552495e-02, -4.43006419e-02, -2.06579790e-02, -9.61417239e-03,
       -1.52140642e-02, -3.66683118e-02, 9.16970614e-03, 3.30486964e-03,
       -2.54598912e-02, -1.22947730e-02, -9.51450318e-03, 1.31944418e-02,
       1.15838638e-02, -1.27384048e-02, 1.48087653e-04, -7.52516510e-03,
       7.52952462e-03, 6.27922034e-03, 6.31049797e-02, 6.37383312e-02,
       1.99110471e-02, 8.15970264e-03, -3.62346321e-02, -2.22753566e-02,
       1.04855224e-02, 2.36200392e-02, 9.97036230e-03, 5.00039794e-02,
       2.86615193e-02, -3.98441628e-02, 1.64177362e-02, -3.39172110e-02,
       -2.77099218e-02, -2.12888103e-02, -6.42800378e-03,
       -2.07271185e-02, 6.51818467e-03, 1.08149210e-02, 1.43841784e-02,
       9.56292544e-03, -3.76466252e-02, -2.63308864e-02, -3.29667400e-03,
       -1.59876436e-04, -3.77915800e-02, 3.50312442e-02, -9.61621292e-03,
       7.56305736e-03, 1.69327967e-02, -1.60774272e-02, -2.62866113e-02,
       -2.15955433e-02, -9.22862720e-03, -1.82511937e-02, 3.21648829e-02,
       2.82762069e-02, 2.08714455e-02, 2.22847573e-02, -3.03424206e-02,
       -2.03952752e-02, -2.36911811e-02, -1.60672665e-02,
       -4.17112932e-02, 4.53942036e-03, 3.13709639e-02, 2.12436747e-02,
       1.56527683e-02, -3.27385813e-02, -2.28052717e-02, -2.89069749e-02,
       -1.57638323e-02, -2.19493732e-02, 1.89823806e-02, 2.56569160e-06,
       3.38206924e-02, 3.09446100e-02, -2.25188164e-03, -3.76285240e-02,
       -2.05226801e-02, -1.84460133e-02, -3.48270684e-02,
       -4.49206308e-03, 2.57191341e-02, -1.55095488e-03, 8.25046562e-03,
       -2.85999719e-02, -2.56436858e-02, 1.58068482e-02, 7.31732277e-03,
       -3.20345908e-02, 1.25286002e-02, -9.65818018e-03, 2.61292476e-02,
       1.65931508e-02, -2.88974419e-02, 1.17172552e-02, 1.37611665e-03,
       2.04480207e-03, 8.19185458e-04, 1.75653696e-02, -1.46981515e-02,
       -1.14074005e-02, 4.28455174e-02, -7.12079043e-03, -2.98803318e-02,
       -2.09155828e-02, -1.48403002e-02, -8.57122801e-03, 8.20424967e-03,
       -1.91198755e-02, 2.33858749e-02, 4.78177555e-02, -1.57787893e-02,
       -5.86381648e-03, -1.75706167e-02, -6.38179667e-03, 8.51982925e-03,
       1.16780493e-02, 2.12794449e-02, -7.09890155e-03, -1.56276394e-02,
       -2.46091858e-02, 1.12042041e-03, -1.97932161e-02, -1.20324772e-02,
       -4.12501916e-02, 3.33991414e-03, -8.28794017e-03, 1.34155909e-02,
       -8.91737267e-03, -2.48264149e-02, -1.03384368e-02,
       -1.41126448e-02, -3.12433951e-02, -1.46758342e-02, 1.57063156e-02,
       -8.73308256e-03, -1.44272856e-02, 1.35419029e-03, -2.51317434e-02,
       -2.31331363e-02, -2.28745416e-02, -1.86823476e-02,
       -4.07021679e-02, 4.80054785e-03, 8.53677373e-03, 2.11286731e-02,
       1.62021685e-02, -8.92004557e-03, -5.71747019e-04, -2.02758033e-02,
       -3.00210845e-02, -2.45918632e-02, 3.40879299e-02, 4.40100022e-02,
       -8.37590080e-03, 4.21485044e-02, -1.30615628e-03, -1.10298656e-02,
       -3.82578634e-02, -2.30336618e-02, -3.27098160e-03, 1.55053856e-02,
       -1.64790004e-02, -6.19484717e-03, 5.65650361e-03, 8.53859726e-03,
       -1.89267360e-02, -1.69787724e-02, -3.83183248e-02,
       -1.89829040e-02, -1.88926095e-03, -4.30396013e-02, 2.26695966e-02,
       5.22105433e-02, 5.67969196e-02, 2.72011869e-02, -8.58077779e-03,
       2.19641486e-03, 2.82204617e-03, 3.21189500e-02, 2.20270380e-02,
       2.52879169e-02, 5.01932949e-02, 4.78763804e-02, 4.47344966e-03,
       7.34386267e-03, 2.09514648e-02, -5.23803337e-03, 3.12464871e-02,
       -4.59526293e-03, 1.39837619e-02, -7.57183321e-03, 8.81877169e-03,
       1.27801746e-02, 3.73609141e-02, 4.73398045e-02, 2.46699173e-02,
       3.22078019e-02, 2.19292957e-02, -2.59631705e-02, -4.10284922e-02,
       -3.73888612e-02, -4.25907448e-02, -4.12224047e-03,
       -4.53281729e-03, -2.74046045e-02, -1.38306683e-02,
       -2.01583933e-02, 3.96725051e-02, 5.55599779e-02, 2.85045784e-02,
       2.56631263e-02, 5.58214895e-02, 8.89008641e-02, 3.75023559e-02,
       6.96551129e-02, 4.23863567e-02, -6.31347485e-03, -2.68913340e-02,
       -2.61302255e-02, -1.62122287e-02, 7.02897133e-03, 4.37982529e-02,
       6.60391466e-04, -1.69400256e-02, -4.30567656e-03, 7.14666210e-03,
       8.56017042e-03, 9.02394240e-04, 1.90720484e-02, 6.66560698e-03,
       1.15931304e-02, -1.04531110e-03, 1.72077604e-02, 1.51019422e-02,
       -3.89481857e-02, -2.58714166e-02, 5.59626787e-04, 7.65077211e-03,
       1.21902919e-03, 1.69260893e-02, 1.75662227e-02, -1.56953838e-02,
       -2.18047984e-02, 1.44281844e-02, -4.98851435e-03, -2.75426498e-03,
       6.19617011e-03, -1.29780360e-02, 3.80957201e-02, 3.38619389e-02,
       -7.23232841e-03, 1.36991721e-02, 1.09402584e-02, -1.98246520e-02,
       -7.68477982e-03, 1.96699090e-02, -2.14403160e-02, 5.69123589e-03,
       3.54444608e-02, -2.76573505e-02, -7.86163192e-03, 5.38838096e-02,
       -4.28846590e-02, -4.00652662e-02, -1.17811058e-02, 4.30934783e-03,
       -1.75498761e-02, -2.79478356e-02, -6.64787320e-03, 5.82035296e-02,
       2.74873208e-02, -2.68855169e-02, -3.80524471e-02, 7.61166867e-03,
       3.00281006e-03, 2.84137810e-03, -5.38267335e-03, -2.05031270e-03,
       4.46830206e-02, 3.65198627e-02, 8.35425034e-03, -4.76156659e-02,
       -5.36999246e-03, 1.19793257e-02, 1.16498407e-03, -3.16323787e-02,
       -2.56141983e-02, 5.34225330e-02, 3.31048556e-02, 3.14249992e-02,
       9.61338263e-03, 2.87494771e-02, 3.13874446e-02, 8.87533464e-03,
       -2.81065088e-02, -2.14052796e-02, 5.30805178e-02, -4.17471789e-02,
       -6.43823482e-03, 4.72098626e-02, 4.51469906e-02, 3.77572849e-02,
       3.27351615e-02, 3.76046114e-02, -2.82692555e-02, -2.60715634e-02,
       -3.03413421e-02, 3.09074465e-02, 4.60386537e-02, 3.31822038e-02,
       5.25376899e-03, 3.83197591e-02, 7.41795916e-03, -8.91186111e-03,
       -4.77696657e-02, -3.23082618e-02, -2.06257962e-03, 3.35282683e-02,
       3.96456048e-02, 4.62741926e-02, 6.51494339e-02, 7.83237219e-02,
       6.44072751e-03, -2.61539705e-02, -4.11054008e-02, 3.00246174e-03,
       2.24990752e-02, 1.33872656e-02, 3.30034946e-03, 5.39017618e-02,
       6.38333783e-02, 6.32138997e-02, -3.15418020e-02, 3.66653539e-02,
       3.61491702e-02, 1.08077051e-02, 1.70578174e-02, -1.71924796e-04,
       -1.87515863e-04, -9.47463978e-03, 2.43817363e-02, 1.54529028e-02,
       6.39357185e-03, 2.30841734e-03, 9.68327560e-03, 1.00488057e-02,
       1.35421671e-03, 1.89229299e-03, 2.79821064e-02, 3.37539017e-02,
       5.24437288e-03, 2.12437790e-02, 5.71674220e-02, 1.73731968e-02,
       -1.09864520e-02, -2.71848254e-02, 1.90502626e-03, 4.45882231e-03,
       4.45569977e-02, 3.57702002e-03, 2.86087487e-02, 4.76107597e-02,
       3.51458825e-02, -1.54856211e-02, -1.83805041e-02, -8.97815078e-03,
       1.30747985e-02, 8.23236071e-03, -1.14851603e-02, -3.13267857e-02,
       3.23875472e-02, 5.82178459e-02, 5.50430119e-02, 1.57247875e-02,
       5.00145145e-02, 5.78300841e-02, 5.44644967e-02, -5.04329801e-04,
       -6.96733519e-02, -2.21593007e-02, -8.19486333e-04,
       -2.26543881e-02, -8.17000959e-03, -6.82766724e-04, 1.95023287e-02,
       -3.78644862e-03, -3.21739167e-02, 1.49406679e-02, 4.44517806e-02,
       5.37293330e-02, 2.20640730e-02, 2.03238092e-02, 6.12046309e-02,
       8.44344050e-02, 5.75270578e-02, -2.20784582e-02, -4.33219336e-02,
       -1.68371890e-02, 3.18247043e-02, -2.56484677e-03, 1.44409109e-02,
       8.75663944e-03, -1.25885708e-02, -2.64815986e-02, -4.53756936e-02,
       -4.40548882e-02, 1.42102698e-02, -1.36232597e-03, 4.18033497e-03,
       -2.78697386e-02, 2.39694174e-02, 2.15777159e-02, 2.69559287e-02,
       -1.45171499e-02, -2.53366586e-02, -2.35342551e-02,
       -4.31925170e-02, -2.04717722e-02, -4.96410131e-02,
       -2.98920181e-02, -2.33725924e-02, -1.26968781e-02,
       -6.83412328e-03, -2.51016859e-02, 2.33789980e-02, 1.10160522e-02,
       1.02884613e-03, -3.17847952e-02, 1.74309351e-02, 8.08670372e-03,
       1.20244324e-02, -9.40796919e-03, -4.02078126e-03, -9.60735325e-03,
       8.92426260e-03, -2.50469279e-02, -4.34491076e-02, -3.41332555e-02,
       -1.18514495e-02, -1.07550053e-02, -1.09407911e-02,
       -1.29206879e-02, 9.30960756e-03, 2.82365363e-03, 2.38162000e-02,
       -1.10391937e-02, 5.46908425e-03, 1.07233217e-02, 7.08156126e-03,
       6.05720421e-03, -2.26223301e-02, 4.31877887e-03, 2.56078318e-03,
       -5.94387355e-04, -1.29895024e-02, -2.52812263e-02,
       -1.39650458e-03, 9.87752154e-03, -3.41104120e-02, 2.44827401e-02,
       9.39338561e-03, -6.34110579e-03, -1.74927025e-03, -1.20053943e-02,
       6.75315503e-03, 1.70353223e-02, 7.27137830e-03, -2.92811245e-02,
       -4.32502329e-02, -6.42465707e-03, -2.71843001e-02,
       -5.24431355e-02, -4.03428897e-02, -4.11592610e-02,
       -7.76042137e-03, -5.50722051e-03, -4.61109988e-02,
       -3.63840126e-02, 1.55798104e-02, -1.23810791e-03, 1.97979878e-03,
       1.33795468e-02, -5.44294715e-04, 2.02869042e-03, -5.60674304e-03,
       -2.49404293e-02, -2.98566334e-02, -1.11286798e-02, 1.82023586e-03,
       -1.42016513e-02, 4.30541486e-02, 1.43916113e-02, 2.58148648e-02,
       -9.80728026e-03, -2.65737735e-02, -5.45962676e-02, 9.35921725e-03,
       6.45855954e-03, -2.31544357e-02, -4.67004254e-03, -9.94213950e-03,
       -8.03788006e-03, 2.62410962e-03, -6.60948008e-02, -3.01640816e-02,
       4.56096604e-03, 1.66130364e-02, 1.15646124e-02, 3.72974351e-02,
       -1.15990136e-02, -1.63732842e-02, -1.51943658e-02,
       -3.18915583e-02, -3.03201154e-02, -3.17827729e-03, 1.69284344e-02,
       1.53563069e-02, 8.43826681e-03, 4.73332256e-02, 1.93853974e-02,
       1.96389630e-02, -4.06272598e-02, -3.54575180e-02, -1.58441868e-02,
       -2.40398180e-02, 3.00793303e-03, 2.89287362e-02, 1.24447849e-02,
       3.78637039e-03, 9.69008449e-03, -4.65663187e-02, -1.36020379e-02,
       2.61412300e-02, -1.18705565e-02, 2.05614846e-02, 2.87754554e-02,
       2.49647498e-02, 8.10002442e-03, 5.24475984e-03, -2.98477095e-02,
       -1.85655504e-02, 2.42458656e-02, -1.32686819e-03, -4.58832877e-03,
       3.89814638e-02, -1.77134946e-02, -1.07214367e-02, 1.71665015e-04,
       -1.17521929e-02, -5.48063368e-02, 1.80057678e-02, -1.64324436e-02,
       -1.94773786e-02, -4.47832933e-03, -1.13359047e-02,
       -2.86546536e-02, 2.95451134e-02, -2.40292288e-02, 1.83111280e-02,
       5.06571718e-02, -2.37156302e-02, 5.13525493e-03, 2.70731635e-02,
       -3.26086134e-02, -4.54739556e-02, 4.56574671e-02, -6.27016835e-03,
       1.36578130e-02, 3.66460346e-02, -8.82433541e-03, -1.37694702e-02,
       8.49508122e-03, -3.18766683e-02, -4.24528122e-03, 2.68557109e-02,
       -3.02989874e-02, 2.16910504e-02, 3.41437608e-02, -1.95849556e-02,
       -2.12712158e-02, 1.90273821e-02, -3.04260440e-02, -3.49291600e-02,
       2.75888015e-02, 2.92498954e-02, 1.61042791e-02, 4.11223285e-02,
       -1.05335135e-02, 4.67466097e-03, 1.34198777e-02, -3.77357961e-03,
       -1.48081491e-02, 2.13968027e-02, -1.47284707e-02, 2.58735642e-02,
       4.64521870e-02, 4.12911326e-02, -2.13357359e-02, -1.72811989e-02,
       -2.60837097e-03, 1.19684013e-02, 3.59523930e-02, 3.69044207e-02,
       2.65150480e-02, 3.79430735e-03, -1.80308018e-02, -7.24080112e-03,
       1.71656103e-03, -1.31661687e-02, -1.21997166e-02, 1.61911026e-02,
       2.88473186e-03, 1.71404183e-02, 3.28467302e-02, -6.80751633e-04,
       -3.58822122e-02, -3.72345820e-02, -4.43786122e-02, 2.71196645e-02,
       2.73689907e-02, 4.90900013e-04, -3.04308021e-03, 2.72519365e-02,
       -2.84425612e-03, -1.47339161e-02, -6.86387392e-03,
       -1.84478592e-02, -1.14119248e-02, 2.77400333e-02, -2.46997993e-03,
       2.01644599e-02, 2.86531579e-02, -3.22211012e-02, -3.54768261e-02,
       -3.37051488e-02, -2.37326585e-02, -1.87895652e-02, 2.11790223e-02,
       1.33122057e-02, -1.06623853e-02, 1.20259412e-02, -1.43193509e-02,
       -2.86586639e-02, 1.04863653e-02, -2.68439017e-02, -1.86258722e-02,
       3.30812149e-02, -1.92548558e-02, 1.95173186e-03, 1.75872166e-02,
       -2.06301641e-02, -3.86202782e-02, -1.84761733e-02,
       -3.36871818e-02, -4.73654643e-02, 1.58097930e-02, 8.81451834e-03,
       -1.49312774e-02, 2.64510792e-02, -1.97090656e-02, -2.00841222e-02,
       -1.80158634e-02, -1.38265286e-02, -3.21182646e-02,
       -1.44529305e-02, 5.69721218e-03, 1.91302188e-02, 2.02210862e-02,
       -7.00438069e-03, -1.57362372e-02, -1.07025914e-02,
       -1.40441480e-04, -5.75424125e-03, 2.29718089e-02, 9.71151609e-03,
       1.57595356e-03, 6.28835941e-03, -3.29284891e-02, -3.01862769e-02,
       -1.16711482e-02, -1.83794741e-02, -2.55064722e-02, 1.31532187e-02,
       -6.56493707e-03, 3.81130427e-02, 1.94302127e-02, -1.65898819e-02,
       -2.99271271e-02, -1.07889604e-02, -4.30004532e-03, 3.15814337e-04,
       1.96637046e-02, 2.20279135e-02, -5.17824432e-04, 1.16537362e-02,
       6.92562014e-03, 2.08461490e-02, -1.90971904e-02, 2.26416308e-02,
       -1.40270367e-02, 5.23922360e-03, 5.77301392e-03, -4.63834906e-04,
       1.19363517e-02, -5.13789896e-03, 2.90277135e-02, 5.17653720e-03,
       1.91132408e-02, -7.11958064e-03, 7.95273855e-03, -2.80456897e-03,
       3.26846689e-02, 2.15267707e-02, -2.19305512e-02, -8.77151452e-03,
       -2.56753620e-02, 2.44426243e-02, 9.54360981e-03, 2.15050634e-02,
       7.96261057e-03, 7.31538329e-03, 1.70130134e-02, -2.31846999e-02,
       8.75442009e-03, -6.05746778e-03, -2.01198980e-02, -1.58875585e-02,
       2.03049649e-02, -8.63521267e-03, 1.70024261e-02, 2.28787642e-02,
       -3.95693025e-03, 5.68880141e-02, 6.62875473e-02, 8.30392316e-02,
       1.37827930e-03, 1.92606486e-02, 1.68521535e-02, -1.19182300e-02,
       -4.77809273e-02, -3.87924761e-02, -1.47745227e-02, 1.51304537e-02,
       7.78445089e-03, -1.96877867e-02, -3.21508646e-02, -2.26773396e-02,
       -1.19771948e-03, 1.23589877e-02, -3.34379845e-03, 7.37343505e-02,
       6.26571104e-02, 1.94619820e-02, -4.29217145e-03, 3.36428210e-02,
       8.56164936e-03, -2.49434393e-02, -2.13525370e-02, -2.03938670e-02,
       1.36213619e-02, 5.51962014e-03, -3.49100940e-02, -6.27806559e-02,
       -5.08253239e-02, -2.03567091e-02, 4.21799645e-02, -1.66257210e-02,
       1.06767612e-02, 3.51721570e-02, 5.87331271e-03, 2.08299365e-02,
       1.81907061e-02, -2.12991685e-02, 2.62542292e-02, 4.39580344e-02,
       -1.33548705e-02, -2.23137327e-02, 3.94596253e-03, -1.53439203e-02,
       -8.98351718e-04, -2.17894558e-03, -2.09838301e-02, 1.92963686e-02,
       3.02178431e-02, -2.17927899e-03, 1.17899040e-02, 3.08621563e-02,
       5.41715045e-03, 7.80635839e-03, -3.25849210e-03, -3.44612859e-02,
       1.83716770e-02, 8.03462230e-03, -1.51730999e-02, -1.25643834e-02,
       1.34045156e-02, -2.79124416e-02, 4.34665335e-03, 3.35639721e-04,
       -4.65008803e-02, 8.16883147e-03, 4.52875812e-03, -3.54974484e-03,
       -4.07422520e-02, 2.98762717e-03, 3.35663818e-02, 2.36697793e-02,
       5.33563597e-03, -8.13825615e-03, -1.94437914e-02, 1.36799691e-02,
       6.07870379e-03, -4.10027942e-03, 3.78041416e-02, -1.65933259e-02,
       -1.85335730e-03, -2.18328089e-02, -1.85373779e-02, 2.08435301e-02,
       -8.80135596e-03, -3.50571722e-02, -3.27664986e-02,
       -9.33997426e-03, 1.19302617e-02, 3.11998222e-02, -1.26562687e-03,
       -9.25337337e-03, -1.51001923e-02, 2.46558934e-02, 1.50667373e-02,
       4.83773788e-03, 1.48068750e-02, -1.23142207e-03, 1.54751930e-02,
       1.13108698e-02, 3.49834049e-03, 2.26400085e-02, -1.17040984e-02,
       -2.89232358e-02, 4.60004061e-03, 2.30273437e-02, 2.51603704e-02,
       5.80110438e-02, 6.41798526e-02, 5.86463185e-03, -1.27890995e-02,
       4.53843642e-03, -4.53307293e-03, 6.94180187e-03, 6.65046647e-03,
       -7.73429777e-03, 5.44423088e-02, 8.78733993e-02, 7.25621879e-02,
       1.67786293e-02, -3.04835457e-02, -2.30299607e-02, -1.29592065e-02,
       -2.89553143e-02, -5.41775627e-03, -7.43752113e-03, 1.67344268e-02,
       -2.53154058e-02, -2.92605739e-02, 3.16076516e-03, -1.16087170e-02,
       -1.08270571e-02, -1.53729273e-02, -2.80550215e-02, 2.15043295e-02,
       2.20792610e-02, 2.13785544e-02, 2.92145181e-02, 6.32709190e-02,
       3.85278203e-02, 3.90753103e-03, -1.07875979e-02, -9.30053554e-03,
       -1.21233184e-02, -2.39834767e-02, 2.49621440e-02, 2.23765410e-02,
       6.03607818e-02, 6.92586526e-02, 2.18565892e-02, -1.56306401e-02,
       -4.22053738e-03, 3.96780446e-02, 3.06106266e-02, 1.61030528e-03,
       1.93364162e-03, 3.72660756e-02, 1.64846219e-02, -1.52722066e-02,
       -3.08736367e-03, -1.13516040e-02, -1.96524505e-02,
       -4.19629589e-02, -1.65015757e-02, 3.37264091e-02, 7.09404703e-03,
       3.66244763e-02, -9.09357704e-03, -1.80249624e-02, 2.07631364e-02,
       2.54664961e-02, -6.72250520e-03, -2.70001423e-02, -2.42181029e-02,
       1.34552764e-02, 4.20316458e-02, 5.00633940e-03, -2.45083030e-02,
       -7.60887237e-03, 7.39919245e-02, 1.06594190e-01, 4.26895358e-02,
       -4.06262502e-02, -3.68587933e-02, -5.29769016e-03, 3.89161141e-04,
       -3.76358218e-02, -4.74668778e-02, -7.42860418e-03, 9.40624159e-03,
       -2.61172466e-02, -2.85622068e-02, -3.32621224e-02, 1.41937444e-02,
       -2.07355935e-02, -2.79549584e-02, 1.57209840e-02, 8.32972750e-02,
       1.36601508e-01, 8.39213058e-02, -1.77708846e-02, -4.16868031e-02,
       -2.06389092e-02, -2.31866557e-02, -5.23278937e-02,
       -1.27697596e-02, -3.68161872e-03, 3.93534862e-02, 4.63908352e-02,
       -7.45841255e-03, -3.11865434e-02, 2.32193489e-02, 2.01903917e-02,
       2.14868691e-02, 9.82405618e-04, -1.05801476e-02, -3.13163623e-02,
       6.41015032e-03, -2.99424725e-03, 1.08111557e-02, 3.60198505e-02,
       -1.46200892e-03, -8.87417700e-03, -1.56040527e-02,
       -1.31145725e-02, -2.32461933e-02, 8.65883473e-03, -1.35876341e-02,
       -2.89298929e-02, 2.15342231e-02, 2.44953781e-02, 1.38795876e-03,
       2.76102107e-02, 1.24530820e-02, 2.51194332e-02, 6.05829321e-02,
       2.07372196e-02, -1.79754663e-02, 1.62400510e-02, 1.92562677e-02,
       -5.83250122e-03, 4.46236366e-03, -1.28034586e-02, -4.05328833e-02,
       1.25383248e-03, 4.03830723e-04, 1.71091431e-03, 1.82614531e-02,
       -1.40720792e-02, -1.96466781e-02, -1.90882292e-02,
       -7.74184056e-03, -9.51414555e-03, 3.20415199e-02, -1.01498635e-02,
       -2.85467599e-02, -3.53370653e-03, -3.60316481e-03,
       -3.16407643e-02, 3.18294019e-03, -1.98420957e-02, -1.78971142e-02,
       7.30751501e-03, -3.20612337e-04, 6.11113291e-03, 2.00382657e-02,
       6.32174825e-03, -1.10963657e-02, -1.94838997e-02, -2.05843076e-02,
       -1.31391212e-02, 6.10532239e-02, 6.67985529e-03, -1.25795174e-02,
       1.64121091e-02, 2.48523261e-02, -2.18632910e-03, -7.09702307e-03,
       1.53447036e-03, -1.16892380e-03, 5.77399656e-02, 7.51902256e-03,
       -2.55620871e-02, 7.01492000e-03, 1.38895614e-02, -3.30729596e-03,
       -2.56536566e-02, -1.91322472e-02, -3.02261207e-02, 1.04365367e-02,
       -1.76520757e-02, 7.68655399e-03, -2.09793821e-02, -2.81251166e-02,
       -1.71416886e-02, -1.50207635e-02, -3.04520670e-02,
       -3.48993875e-02, 2.47878861e-03, -2.25343108e-02, 2.44587213e-02,
       3.42328586e-02, 1.89318601e-02, 9.60654486e-03, -1.58042312e-02,
       -1.09085040e-02, 1.07410084e-02, 8.48490000e-02, 1.56047143e-04,
       7.98943918e-03, 1.95258926e-03, 1.30665442e-02, -1.44660263e-03,
       6.59733219e-03, -2.51543410e-02, -2.08433904e-02, 4.44692709e-02,
       2.94913147e-02, -3.04254498e-02, -4.19389177e-03, -3.97660509e-02,
       1.33765284e-02, -1.80039369e-02, -7.87387043e-03, -8.75592232e-03,
       1.54027576e-02, 4.87597194e-03, -7.76064815e-03, 5.05959196e-03,
       -3.97455804e-02, -6.77003292e-04, -1.15399873e-02,
       -4.79924455e-02, -7.73436576e-03, -1.12765338e-02,
       -2.04465035e-02, 2.94895004e-02, 9.63692274e-03, -1.70411840e-02,
       1.13907913e-02, 2.30183522e-03, -1.54964684e-03, -6.91710366e-03,
       3.58327776e-02, 7.07448870e-02, 4.25550528e-02, 5.64910918e-02,
       -1.50993997e-02, 8.24572891e-03, 3.97031242e-03, -2.72174869e-02,
       -2.10771207e-02, 1.91267170e-02, 6.15611710e-02, 8.60459078e-03,
       1.92400571e-02, -1.99329834e-02, -5.64817199e-03, -1.97982043e-02,
       -3.82596217e-02, -2.55118031e-02, -3.98249831e-03,
       -3.99450846e-02, 1.56609677e-02, 9.35873203e-03, -5.25567085e-02,
       -9.53273103e-03, -1.21172669e-03, -1.17816087e-02,
       -3.71809304e-02, -2.14714948e-02, 3.99712566e-03, 5.11055402e-02,
       5.24323806e-02, -1.34427445e-02, 1.08803045e-02, 2.09333652e-04,
       -1.86123662e-02, -1.77723691e-02, -1.93347014e-03, 2.75651198e-02,
       3.05244979e-02, 1.13643045e-02, -1.02722533e-02, -1.40724180e-03,
       1.52116409e-02, -2.98907813e-02, -1.99571382e-02, -4.38291136e-05,
       2.77736224e-02, 8.98060109e-03, 2.39770226e-02, -3.98359746e-02,
       -9.06889234e-03, -1.14993220e-02, -1.08211730e-02,
       -1.06968274e-02, 2.99332081e-03, -5.76090999e-03, 1.78619977e-02,
       7.06482492e-03, -2.52547450e-02, -2.59866677e-02, -3.82544175e-02,
       -2.86751054e-02, 3.18244612e-03, 3.13189663e-02, 8.61348701e-04,
       3.43525819e-02, 6.34501036e-03, -1.13590816e-02, 3.58617195e-04,
       -3.86493863e-03, -1.65856667e-02, -1.46174256e-03, 2.49016546e-02,
       1.27756335e-02, 2.54928377e-02, -3.56322876e-03, -2.18666811e-02,
       -2.59582102e-02, -5.47590805e-03, -3.63001525e-02,
       -2.80585829e-02, 3.80338095e-02, 7.78125273e-03, -3.09214387e-02,
       8.67248792e-03, -1.94296017e-02, -2.38059051e-02, -1.06243156e-02,
       -9.96494945e-03, -1.05363810e-02, 4.43310477e-02, -1.16908252e-02,
       2.07747295e-02, 4.91464231e-03, -9.76049851e-05, -9.54435859e-03,
       3.61230923e-03, -5.61396917e-03, -1.97209232e-02, 3.49444561e-02,
       4.20487300e-02, -8.57003313e-03, -3.50649701e-03, -3.35907452e-02,
       -1.19622871e-02, 1.43675497e-02, -2.00836491e-02, -3.57809551e-02,
       1.92225911e-02, -1.97051819e-02, 1.11502549e-03, -1.43540939e-02,
       -1.27805201e-02, -9.84546449e-03, 1.29525003e-03, 4.50074999e-03,
       -2.76390128e-02, 4.42229357e-04, 6.77892705e-03, 3.80749479e-02,
       3.14958878e-02, -1.64073296e-02, -1.06361909e-02, -6.54075900e-03,
       -8.96811392e-03, -2.58749295e-02, 2.65970118e-02, 6.87951129e-03,
       5.35362698e-02, 2.72286329e-02, -1.90960579e-02, -1.97301675e-02,
       -2.01757476e-02, -9.48304893e-04, -1.42659731e-02, 4.03723903e-02,
       2.81373225e-02, -2.82779001e-02, -7.68340100e-03, -4.22010422e-02,
       -1.24006551e-02, -1.30253872e-02, 7.91552826e-04, -1.39052153e-03,
       -8.29981873e-04, -2.50990763e-02, -1.76457353e-02,
       -1.63440835e-02, -4.21921536e-02, -1.60757676e-02,
       -7.55430839e-04, -1.25044594e-02, -3.74356681e-03, 4.16586641e-04,
       -1.21472485e-03, 6.98968722e-03, 3.17707993e-02, 7.18940003e-03,
       -1.02519132e-02, 5.30594727e-03, 3.03826816e-02, 5.14152125e-02,
       5.77720627e-02, 2.38420591e-02, -9.19715874e-03, 1.99210178e-02,
       -1.24874827e-03, 1.04854525e-05, -7.52366381e-03, 2.84265378e-03,
       2.18468588e-02, 4.01443094e-02, 3.51853878e-03, -5.28527948e-04,
       8.99649411e-03, -1.78919882e-02, 5.18359942e-03, -8.50478094e-03,
       -1.18980752e-02, 8.57960898e-03, 3.17922980e-02, 4.65211412e-03,
       -5.29759862e-02, 5.03292633e-03, -2.60764007e-02, -2.71918233e-02,
       -1.53352432e-02, -3.02675702e-02, -1.78289488e-02, 9.13846586e-03,
       -3.60195898e-02, 3.08028366e-02, 3.79777290e-02, 4.62578759e-02,
       6.40950277e-02, 6.19094558e-02, 3.13772075e-02, 2.85057910e-02,
       3.51713896e-02, 2.69214753e-02, -1.21540111e-02, -1.47521161e-02,
       -4.01103497e-03, 3.35266963e-02, -1.37582689e-03, -2.96236780e-02,
       -2.97253691e-02, -9.98984743e-03, 1.47936132e-03, 1.20228184e-02,
       2.80065518e-02, 3.45072523e-02, 4.31735031e-02, 4.47458513e-02,
       3.24878208e-02, 1.39691914e-02, 8.76085740e-03, 1.45378048e-02,
       -1.66805051e-02, -2.17779353e-02, -5.97337587e-03, 2.17342768e-02,
       -7.09495367e-03, -1.89445317e-02, -2.45796163e-02,
       -5.45173064e-02, -1.09608164e-02, 3.35347317e-02, -1.05257938e-02,
       6.44747913e-03, 1.20353354e-02, -2.24239435e-02, -3.18798283e-03,
       2.35705823e-02, 5.08747436e-03, 3.33205983e-02, 3.15365731e-03,
       -1.63404848e-02, 5.97914914e-03, 2.97963433e-02, -2.67212223e-02,
       1.82989668e-02, -9.14825359e-04, -5.32294996e-02, 8.99748225e-03,
       1.84980463e-02, 4.16390132e-03, -9.59020481e-03, 1.98749322e-02,
       8.73918820e-04, 1.31370518e-02, 3.93668525e-02, 5.56464680e-03,
       1.55125353e-02, 2.80407071e-03, -1.48142697e-02, 3.20878327e-02,
       3.68731171e-02, -2.35460941e-02, 1.95923373e-02, -9.43447277e-03,
       -3.14102769e-02, -3.56576382e-03, 2.17747893e-02, -1.12417210e-02,
       -2.00922098e-02, -1.57185588e-02, 1.35697741e-02, -7.39137083e-03,
       -5.29755512e-03, -9.32762120e-03, 8.58000014e-03, 1.95535701e-02,
       2.23109666e-02, 2.33438760e-02, -4.01948439e-03, -2.47093453e-03,
       -1.44754816e-02, -8.61265417e-03, 8.15824606e-03, 1.72858033e-02,
       -1.12361396e-02, -1.95495281e-02, -2.71292198e-02, 1.73314586e-02,
       2.90558841e-02, 3.08978166e-02, -1.50091446e-03, 6.93987217e-03,
       1.30725950e-02, 8.81678518e-03, 1.77148394e-02, 7.19815027e-03,
       1.23510575e-02, -2.84337369e-03, 8.06064997e-03, -8.91492050e-03,
       2.30310466e-02, 4.43235561e-02, 1.59851797e-02, 1.69544164e-02,
       3.87296230e-02, 3.50844376e-02, 2.28124224e-02, -2.24437732e-02,
       6.75113266e-03, -4.40008519e-03, -1.02641247e-03, 8.84815399e-03,
       -5.92872594e-03, 4.16861754e-03, 4.81753703e-03, -4.23504300e-02,
       -1.31637445e-02, 2.00175727e-03, 2.64174514e-03, 9.97594371e-03,
       1.81086641e-02, 1.18158422e-02, -5.75476326e-03, 2.31763311e-02,
       4.61241184e-03, -1.51277427e-02, -3.22500691e-02, -1.74275376e-02,
       1.99796837e-02, 4.45681013e-04, -1.81522463e-02, -8.50642938e-03,
       1.22230044e-02, -1.04737813e-02, -1.60642918e-02, -2.97239069e-02,
       4.23380919e-03, 2.44733915e-02, 4.34917584e-03, -1.59391928e-02,
       -3.40286680e-02, 1.51762040e-02, 2.69645415e-02, -1.06279012e-02,
       -1.99294128e-02, -9.98699386e-03, 6.69293711e-03, -1.12436963e-02,
       3.82873267e-02, 1.08269071e-02, 2.20416841e-05, 5.70892065e-04,
       -4.18241788e-03, -1.27873681e-02, -1.78645104e-02,
       -1.43656628e-02, -5.63833630e-03, -2.21999250e-02,
       -1.07335383e-02, 3.71288019e-03, 4.55814078e-02, 1.30888242e-02,
       -3.63298808e-03, 9.55337659e-03, 1.33245927e-03, 1.38003072e-02,
       2.69950218e-02, 1.88860372e-02, 6.28032535e-03, -1.73008405e-02,
       4.11565276e-03, 1.61165686e-03, -1.97450295e-02, 3.41241597e-03,
       1.79950905e-03, 3.31714191e-02, 6.65269513e-03, -1.62109581e-03,
       -6.78436924e-03, 4.04288433e-03, 4.09226157e-02, 3.44398730e-02,
       -3.20170596e-02, -1.84194483e-02, -1.79920823e-03, 8.56835395e-03,
       -1.95778292e-02, 1.22359060e-02, -8.78905470e-04, 1.60700101e-02,
       3.87307853e-02, 6.91514043e-03, 4.64524468e-03, 1.25714028e-02,
       -2.12645493e-02, -1.71230151e-03, 2.55036610e-03, -2.32364926e-02,
       -6.43553771e-03, -8.33094958e-03, -2.02616099e-02, 8.73416569e-03,
       -8.27730913e-03, -6.73959218e-03, -3.23553500e-03, 2.26850715e-02,
       -3.36330459e-02, -2.31108591e-02, -1.72867801e-03, 2.49978006e-02,
       -2.63720192e-03, 1.39743704e-02, 1.48453144e-02, 5.66399051e-03,
       1.09892953e-02, -2.95407306e-02, -2.24545766e-02, 5.16085885e-02,
       3.92389968e-02, -2.83288471e-02, -7.71590648e-03, -6.06406713e-03,
       8.12112074e-03, 1.72316115e-02, -4.65845311e-04, -4.23706584e-02,
       1.67183876e-02, 2.06077881e-02, 2.25837175e-02, -8.59449338e-03,
       -7.50987791e-03, 1.38998590e-02, 1.30429231e-02, -1.30658327e-02,
       -1.20951952e-02, 4.51461300e-02, 6.66019022e-02, 8.72800685e-03,
       -3.91321303e-03, -1.27889188e-02, 2.74822097e-02, 7.32545974e-03,
       -1.42835202e-02, -2.28953622e-02, -5.10557741e-03, 2.39058714e-02,
       -3.43169346e-02, 4.88921162e-03, 4.81913472e-03, 5.78348339e-03,
       6.16524462e-03, 1.10132592e-02, -5.24087111e-03, 4.26796749e-02,
       -7.70122278e-03, -1.83631182e-02, -1.02760568e-02,
       -2.77122371e-02, -3.34462933e-02, -3.05472245e-03, 9.63225216e-03,
       -1.24354539e-02, 1.61518399e-02, -1.55983875e-02, 2.27139089e-02,
       3.44837806e-03, -1.45132598e-02, 1.48988618e-02, 2.64513139e-02,
       2.04369146e-02, -2.15735193e-03, 1.69728994e-02, 3.39037925e-02,
       6.37217483e-04, 6.67718658e-03, -2.92292293e-02, -3.45201902e-02,
       5.03367698e-03, 5.78943361e-03, -2.70416606e-02, -6.67870790e-03,
       -4.92504274e-04, 1.29299355e-03, 2.15873942e-02, -7.73625914e-03,
       5.68318600e-03, -1.27986612e-04, 1.18109174e-02, -1.40685840e-02,
       5.77469468e-02, 9.69279371e-03, -6.05928292e-03, -1.56933144e-02,
       -1.38419280e-02, -1.10522369e-02, 2.57509574e-02, 3.64449085e-03,
       -1.39493141e-02, 4.00389694e-02, 1.82661302e-02, 4.00900841e-04,
       3.04587949e-02, -1.06866406e-02, -2.84226611e-02, -3.88810807e-03,
       7.83196185e-03, -1.55434702e-02, 2.44154455e-03, 3.52667156e-03,
       -1.43180126e-02, 3.50903757e-02, 3.79575911e-04, -2.21374594e-02,
       8.26307863e-04, -2.27366183e-02, 8.48210976e-03, 1.61302127e-02,
       2.49521644e-03, 1.88521587e-03, 9.95822993e-05, -1.14999758e-03,
       5.54278726e-03, -5.76089043e-03, 1.38932243e-02, -1.59426779e-03,
       4.10600714e-02, 3.22260112e-02, 1.47161791e-02, 2.38540675e-02,
       2.16717948e-03, 4.38688323e-02, 2.72916667e-02, 9.63634625e-03,
       -6.78662164e-03, 2.08499823e-02, 2.11194977e-02, 1.33276246e-02,
       3.89206223e-02, -1.71352681e-02, -2.09803320e-02, -9.96714272e-03,
       3.40931229e-02, 7.92892929e-03, 9.11206953e-05, -7.39092287e-03,
       -2.06344295e-02, 1.85993835e-02, -1.30131710e-02, 1.85465906e-02,
       2.84251142e-02, -2.49676616e-03, -2.82112393e-03, -3.37049743e-04,
       4.60459059e-03, 1.33308386e-02, 4.96340836e-05, -1.07009150e-02,
       5.40197566e-02, 3.94203067e-02, 3.10998596e-02, -1.95831456e-03,
       -5.55966224e-04, -8.70802347e-03, 3.43992026e-03, -1.19939931e-02,
       -2.09001992e-02, 1.42073389e-02, 3.86880450e-02, 4.11765426e-02,
       1.74574181e-02, -1.70323942e-02, 6.94331666e-03, 7.75746675e-03,
       1.09091448e-02, -1.81858521e-02, 2.88422238e-02, 1.45561593e-02,
       6.18230971e-03, -1.23139163e-02, -4.05516708e-03, -2.18981015e-03,
       9.71618947e-03, -1.30822149e-03, -8.12361017e-03, -2.50941012e-02,
       -7.84934871e-03, 7.69908540e-03, -1.14596700e-02, 1.17522180e-02,
       2.39678305e-02, -3.06053944e-02, -2.43348368e-02, -3.24781835e-02,
       5.06621320e-03, 7.46578537e-03, 9.83731728e-03, -7.82864448e-03,
       2.03701686e-02, 6.65276125e-03, -9.28880461e-03, -3.03021334e-02,
       -2.42559817e-02, 1.31992614e-02, -1.05498293e-02, 1.60836929e-03,
       -1.03991162e-02, 4.58884947e-02, 4.14453307e-03, -1.29456697e-02,
       -7.55452644e-03, -5.99041209e-03, 3.70238675e-03, -1.03120310e-02,
       -3.32645397e-03, -2.92068720e-02, -2.59779636e-02, 3.99020594e-03,
       -1.23600885e-02, 4.13614651e-03, -5.28991595e-03, 1.45398462e-02,
       -1.67391729e-02, -2.11558510e-02, -3.63419801e-02,
       -7.35396380e-03, -1.55491978e-02, -4.65870416e-03,
       -2.68050609e-03, -8.55058781e-04, 3.37584466e-02, 2.81135626e-02,
       1.63384415e-02, -2.40973756e-02, 2.55510211e-02, 1.40574044e-02,
       1.94570273e-02, -1.65478271e-02, -1.55380217e-03, 2.62995865e-02,
       1.75949372e-02, 2.19065845e-02, -1.33640859e-02, 9.56386328e-03,
       1.13691892e-02, -2.26819124e-02, 2.53046514e-03, -1.39634227e-02,
       3.86879127e-03, -4.45748353e-03, -2.11584512e-02, -2.29351576e-02,
       1.97687894e-02, -2.49708258e-02, -1.87626798e-02, -1.89966466e-02,
       -1.59089342e-02, -7.89402425e-03, -1.88286025e-02,
       -5.73228858e-03, -3.31014171e-02, -1.06800282e-02,
       -1.49853677e-02, 6.88767992e-03, -1.86616331e-02, -8.50229710e-03,
       2.70020366e-02, 6.30752789e-03, 3.14999968e-02, 9.27777030e-03,
       2.85283457e-02, 2.89806761e-02, -1.29528986e-02, -9.07491427e-03,
       -1.12986229e-02, 3.43920514e-02, 6.03266852e-03, 1.59214586e-02,
       2.35017911e-02, 2.38003936e-02, 1.94662008e-02, 2.76110172e-02,
       1.01554058e-02, -1.52622955e-02, -1.05509274e-02, -1.46297049e-02,
       -9.14787466e-04, -8.37171264e-03, 9.28038498e-04, 2.38871493e-04,
       -2.05731820e-02, -5.06050652e-03, -2.60369591e-02,
       -3.00779659e-02, -1.35401562e-02, -1.86565798e-02, 1.29268914e-02,
       1.88584197e-02, 1.87424067e-02, -1.81815904e-02, 2.28347816e-02,
       2.02503242e-03, 5.88149168e-02, 2.58314144e-02, 2.73371227e-02,
       9.52858757e-03, 2.84772124e-02, -4.84120304e-04, -3.73454997e-03,
       2.74783894e-02, 9.74942837e-03, 3.13486755e-02, 5.47028892e-03,
       4.35621245e-03, -8.33063445e-04, 3.48623022e-02, 3.81187047e-03,
       -1.53953610e-02, 2.09181458e-02, -4.20667790e-03, -1.93904934e-03,
       -1.69542693e-02, -9.37256403e-03, 8.32538027e-03, 6.55706739e-03,
       -7.05844862e-03, -3.58453616e-02, -1.13286627e-02,
       -1.05728926e-02, -1.18481964e-02, -3.17423753e-02,
       -1.90963652e-02, -2.49590389e-02, -1.35243088e-02, 8.21838528e-03,
       1.47195952e-02, 2.72178706e-02, 5.99691570e-02, 5.83846942e-02,
       1.11390622e-02, 2.83370949e-02, 9.55248252e-03, 2.24143490e-02,
       1.88028980e-02, 5.62356645e-03, 1.48419589e-02, 6.18255232e-03,
       2.46204175e-02, 1.32778874e-02, 1.96465049e-02, 2.65175244e-03,
       -5.63800782e-02, -2.38165502e-02, 1.64961666e-02, -1.34070928e-03,
       1.97789110e-02, 6.87293429e-03, -1.59466751e-02, -3.42321545e-02,
       -1.99144594e-02, -1.75517537e-02, 3.34960967e-02, 1.79833341e-02,
       -7.78001128e-03, -8.59092548e-03, -2.38951910e-02,
       -9.82516631e-03, 7.37097114e-04, -9.40575730e-03, -9.80225578e-03,
       6.30124891e-03, 2.72603631e-02, 1.54038416e-02, 5.62674319e-03,
       -2.46631936e-03, -1.89352932e-03, 5.85106853e-03, 3.06536946e-02,
       -1.64599176e-02, -1.17358342e-02, -1.39181400e-02,
       -4.32222970e-02, -1.16950916e-02, 9.06645693e-03, 1.37252212e-02,
       5.08166179e-02, -9.39720124e-03, -3.89454924e-02, -9.65500623e-03,
       1.87527929e-02, -2.20209686e-03, 4.19042353e-03, 8.63255374e-03,
       1.05863782e-02, 2.78911870e-02, 2.43795607e-02, -1.81246419e-02,
       6.37173140e-03, -2.54032668e-03, -5.09548970e-02, -6.16921159e-03,
       2.25634277e-02, 6.31807779e-05, 4.02154848e-02, -1.57075822e-02,
       -5.07301427e-02, 2.17225235e-02, -5.28200017e-03, -3.29782329e-02,
       -1.45444833e-02, 1.84685774e-02, 1.20741427e-02, 1.55273825e-02,
       2.32960938e-05, -5.89861721e-03, 2.64428146e-02, 1.66778099e-02,
       9.38416366e-03, -2.18649134e-02, 1.77148059e-02, -2.05606055e-02,
       1.77065134e-02, -1.16999662e-02, 7.56445806e-03, 4.20104340e-02,
       2.12307218e-02, -9.92050208e-03, 3.56461154e-03, 3.09199933e-02,
       4.89142630e-03, 8.45909957e-03, -7.64359161e-03, 4.64205630e-03,
       3.14806178e-02, 2.39539929e-02, 6.31540641e-03, -9.10913572e-03,
       5.91110922e-02, 1.89554214e-03, 1.51651464e-02, -2.60083796e-03,
       1.81581192e-02, 2.69580781e-02, -1.67014878e-02, 4.52041160e-03,
       -5.60886040e-03, 1.92666985e-02, 1.14285639e-02, 5.16189728e-03,
       1.12472596e-02, 1.00530684e-03, 1.46676935e-02, -1.45766546e-03,
       -7.06051942e-04, -2.19245558e-03, 1.36575364e-02, 1.42571265e-02,
       1.44325923e-02, 1.86604504e-02, 1.31659489e-02, 2.67166346e-02,
       2.82259360e-02, 2.20823996e-02, 4.18504671e-04, 5.13807610e-02,
       2.15839334e-02, 2.69266282e-04, -7.68482080e-03, -1.38253989e-02,
       1.33325793e-02, 9.94874723e-03, 4.39207181e-02, 7.19280774e-03,
       1.57383382e-02, 8.90240073e-03, 1.56675875e-02, -9.28885397e-03,
       -2.49653794e-02, -1.24199619e-03, -3.05675174e-04,
       -1.88304845e-03, 1.44531718e-03, 9.40493494e-03, 1.80741791e-02,
       7.27509707e-03, 2.85143871e-02, 1.51798117e-03, 2.35261745e-03,
       6.30315801e-04, 8.78126267e-03, -1.16281696e-02, -7.36512011e-03,
       -3.91446054e-02, -1.14022533e-03, 1.40923075e-02, -7.34070223e-03,
       -1.78939532e-02, -2.30513178e-02, 1.64296217e-02, 6.38165232e-03,
       2.58114748e-02, 2.82476339e-02, 5.58496965e-03, 2.35307566e-03,
       7.50172650e-03, -6.78686309e-04, 2.85087004e-02, 2.45020706e-02,
       2.70946082e-02, 1.56600177e-02, -5.64480154e-03, -7.48155080e-03,
       3.34858266e-03, 2.72722589e-03, 2.81632431e-02, -1.00707849e-02,
       -1.79882895e-03, -1.59549117e-02, -1.29344547e-02,
       -6.59705605e-03, -7.27850420e-04, -9.65695071e-04, 1.65902488e-02,
       -5.79379406e-03, -1.15805669e-02, -1.56190516e-02, 1.13535477e-02,
       1.13662947e-02, -8.21890216e-03, -8.03215802e-03, -1.72989722e-02,
       -9.91557539e-03, 1.64293544e-03, 3.20018711e-03, -3.01216748e-02,
       -3.67541518e-03, 1.88748185e-02, 7.99764041e-03, -1.09496666e-03,
       -1.32509200e-02, -9.53819603e-03, 2.91212499e-02, -1.71035109e-03,
       -2.67997081e-03, -2.25620437e-02, -7.08338665e-03,
       -2.18746550e-02, -8.51390767e-04, -1.63811371e-02,
       -7.87797268e-04, -5.88392613e-05, 2.58056307e-03, 3.05533521e-02,
       2.65914258e-02, 2.07928959e-02, -6.74972264e-03, 1.41609013e-02,
       -1.68238152e-02, 2.30553821e-02, 5.10931481e-03, -5.86795993e-03,
       1.07237072e-04, 3.22969584e-03, 8.37677158e-03, -9.33944393e-05,
       2.07151962e-03, -3.31698470e-02, -2.28568856e-02, -1.68760270e-02,
       -4.63068578e-03, 1.58779230e-02, -1.93381291e-02, -2.36278363e-02,
       -5.76473353e-03, 2.50783637e-02, -1.37429740e-02, 1.88022703e-02,
       -8.95761978e-03, -1.27664357e-02, -2.21069995e-02,
       -1.34289600e-02, -2.18887515e-02, 3.75516526e-02, -1.15136728e-02,
       -2.90779546e-02, -7.09408056e-03, -2.08919346e-02,
       -1.86547376e-02, 2.07750481e-02, -7.50761293e-03, 3.31298225e-02,
       1.40878195e-02, 5.25127277e-02, -3.20647582e-02, -2.01317966e-02,
       1.54302856e-02, -9.90142766e-03, -4.55553411e-03, -2.43558418e-02,
       -1.46077508e-02, -1.31982472e-02, 1.00342277e-02, -5.42043112e-02,
       -1.14580407e-03, 5.26341703e-03, -7.13117747e-03, 2.37763021e-02,
       -1.32244714e-02, -3.93543451e-05, 3.31564583e-02, 1.01393731e-02,
       -2.50360984e-02, -1.32949743e-02, -1.69993527e-02, 6.06238435e-04,
       1.41955661e-02, -1.22740651e-02, -3.93492021e-02, -6.45897002e-04,
       -1.03279296e-02, -3.35589871e-02, -3.06870546e-02, 4.46883758e-04,
       -3.75652662e-03, 1.91158783e-02, -2.67835497e-03, 3.11273179e-05,
       -7.75627559e-03, 2.83596311e-02, -3.14227752e-02, -2.27904576e-03,
       -2.97927088e-03, -7.13819498e-03, 3.21544744e-02, -1.96576510e-02,
       3.68259731e-03, -1.53888098e-03, 5.25601394e-03, -2.81318873e-02,
       -1.19640715e-02, -3.65761332e-02, 1.67068224e-02, 7.98636675e-03,
       -1.14098918e-02, -1.71092711e-02, 1.30037460e-02, 3.33810672e-02,
       -2.54694149e-02, -1.47997551e-02, 4.45130980e-03, -2.57952884e-02,
       2.77515836e-02, -3.26259807e-02, 1.32750142e-02, 1.69496257e-02,
       2.56367438e-02, -3.44384201e-02, -1.71804987e-02, -3.13081592e-02,
       -4.11423622e-03, 3.22189331e-02, 1.83428579e-03, 1.49183320e-02,
       6.32360205e-03, 5.75075410e-02, 3.62397381e-03, 3.91810900e-03,
       -1.35098780e-02, -4.25459538e-03, 6.14959095e-03, -1.35468086e-02,
       2.11413112e-03, -1.22807715e-02, -1.76375080e-03, -4.70143883e-03,
       -4.50405106e-03, -2.03319709e-03, -1.17205763e-02, 2.96010785e-02,
       -2.34240890e-02, -3.32742254e-03, 1.88673362e-02, 2.65501607e-02,
       -3.15448269e-02, 2.06753016e-02, -1.79507304e-02, 3.72695527e-03,
       1.65220294e-02, -7.60023715e-03, 7.16224127e-03, 5.97365201e-03,
       -2.02342514e-02, -1.59714948e-02, 3.85839306e-03, 2.55022501e-03,
       7.36112939e-03, 2.52885986e-02, -1.19804768e-02, -2.83749169e-03,
       -1.04261525e-02, -8.00394977e-04, 1.28407367e-02, -1.55235650e-02,
       1.57540012e-02, -2.92428257e-03, 2.16213856e-02, -1.21218283e-02,
       -3.44752371e-02, -2.75400486e-02, 2.13353476e-03, 2.22900622e-02,
       1.82718784e-03, 5.91751840e-03, 2.06610318e-02, 2.29894221e-02,
       -1.34027358e-02, -6.86746975e-03, -1.17238835e-02, 3.38881388e-02,
       1.67925153e-02, -2.25174427e-03, -6.72880793e-04, 4.21408005e-03,
       -1.12812473e-02, -2.09294986e-02, -1.45089226e-02,
       -1.02385727e-03, 1.77693814e-02, -8.86588264e-03, 3.61000351e-03,
       9.48135927e-03, -3.24140606e-03, 2.05301456e-02, -2.50661629e-03,
       -7.67848082e-03, -1.42993908e-02, 8.06238595e-03, 5.47361048e-03,
       -5.38838981e-03, 2.85019949e-02, -8.78662243e-03, 2.18791142e-02,
       4.55422793e-03, -5.77268144e-03, 1.19736167e-02, 6.09572604e-03,
       -1.07680624e-02, 4.81397088e-04, -9.23581515e-03, 1.03156948e-02,
       -3.48724276e-02, -2.12562531e-02, 2.25759135e-03, 2.75080348e-03,
       -1.32351462e-02, -2.46170089e-02, -8.13368056e-03,
       -2.28647608e-02, -3.38791846e-03, 2.88240216e-03, -1.20866122e-02,
       5.93841262e-03, 4.64161858e-02, -3.43429707e-02, -3.25676501e-02,
       -1.77695099e-02, -1.72199272e-02, 3.48636089e-03, 2.47590486e-02,
       3.61985178e-03, 1.68938227e-02, 1.75993424e-02, 2.48901621e-02,
       9.14070476e-03, 2.23158672e-02, 3.31105199e-03, -3.50102037e-02,
       -5.74564235e-03, -2.85602771e-02, 4.16109990e-03, -1.11113265e-02,
       1.94005556e-02, 3.42568918e-03, -1.23473734e-03, -9.00744367e-03,
       2.21502408e-02, -2.57969764e-03, -1.22324368e-02, 2.29328889e-02,
       2.76061911e-02, 2.34014727e-02, -5.45176584e-03, -1.01506384e-03,
       -1.57579314e-04, -5.25534526e-03, 5.12980018e-03, -1.79179236e-02,
       -1.30499350e-02, -1.84336528e-02, -9.27171856e-03, 6.08178554e-04,
       -1.82188489e-03, -1.15631940e-02, 3.35462112e-03, 1.56155294e-02,
       -9.35324468e-03, 2.67972779e-02, 1.57013685e-02, 2.36549396e-02,
       -8.07116739e-03, 6.36556931e-03, 1.70998927e-02, 1.91975664e-03,
       5.55601530e-03, -5.02683083e-03, 1.79201204e-04, -1.33283380e-02,
       -4.27127536e-03, 6.93643000e-03, 6.11622410e-04, -4.40993533e-03,
       -3.30255576e-03, 1.95847023e-02, -9.44489054e-03, 2.29785030e-04,
       -2.34098802e-03, 3.11660208e-02, 4.42344882e-03, -1.54622449e-02,
       -2.81865802e-02, -2.03308929e-02, -4.84633679e-03,
       -1.00787599e-02, 1.56400576e-02, -7.19060516e-03, -1.46271456e-02,
       -6.11546449e-03, -7.18323002e-03, -2.93829367e-02,
       -1.10099316e-02, 3.32832560e-02, 2.19985098e-02, 3.67600843e-02,
       1.56333596e-02, 2.02892385e-02, 2.32785512e-02, 1.23093147e-02,
       -1.01713985e-02, -2.19516642e-02, -1.46698707e-03, 1.26024997e-02,
       -2.82037584e-03, -7.95667432e-03, 1.26054755e-03, 2.06241310e-02,
       1.88384224e-02, 1.43800667e-02, -2.81290356e-02, -3.02334200e-03,
       -3.20860581e-03, 3.37501755e-03, -1.06562106e-02, 2.57943403e-02,
       8.36912636e-03, -1.41370473e-02, -2.76306551e-02, -3.37491557e-02,
       3.23095778e-03, 1.06281822e-03, -2.31815968e-02, -8.58670287e-03,
       -3.51519743e-03, -2.63082758e-02, -1.17369629e-02,
       -7.53937289e-03, 8.70877784e-03, 1.64693547e-03, 1.41367177e-02,
       1.71277151e-02, -1.00035639e-03, -2.32659560e-02, 1.41913369e-02,
       2.67508533e-02, 7.22776982e-04, 6.81839138e-03, -5.64610586e-03,
       -8.38597678e-03, 1.14238476e-02, 1.37976129e-02, -1.07303141e-02,
       1.11624869e-02, 1.08273076e-02, -1.29098464e-02, -2.21344288e-02,
       9.32357647e-03, -2.45468528e-03, 1.25697115e-02, -2.40658969e-03,
       1.54186804e-02, 2.67480221e-02, 3.39664631e-02, -6.49274979e-03,
       1.30878631e-02, 5.60483290e-03, -1.04570226e-03, 2.45148838e-02,
       1.76554993e-02, 1.11382958e-02, 1.84208192e-02, 4.17855382e-03,
       1.08043915e-02, 9.48004331e-03, -1.67487375e-02, -1.08922711e-02,
       2.33235266e-02, -1.77813263e-03, 1.00816954e-02, 1.10803882e-03,
       -1.60481296e-02, -7.98354391e-03, 6.97745616e-03, -2.72628237e-02,
       -1.77144608e-03, 1.39079466e-02, 8.86502094e-04, 1.24964509e-02,
       -4.39513242e-03, -3.05241589e-02, 2.74406839e-02, 2.90067587e-02,
       3.23012820e-03, -2.09476403e-03, 9.58713237e-03, -3.36311981e-02,
       3.01529001e-02, -1.03557119e-02, -4.29530599e-04, 1.76201668e-02,
       2.72079781e-02, -1.20231248e-02, 2.60366383e-03, 3.62812635e-03,
       -1.49525739e-02, 2.68023834e-02, -7.49896793e-03, -1.34978453e-02,
       3.07339970e-02, -1.63093865e+00 ]
